Language model created by QuickLM on Tue Nov 10 08:24:27 EST 2015
Copyright (c) 1996-2010 Carnegie Mellon University and Alexander I. Rudnicky

The model is in standard ARPA format, designed by Doug Paul while he was at MITRE.

The code that was used to produce this language model is available in Open Source.
Please visit http://www.speech.cs.cmu.edu/tools/ for more information

The (fixed) discount mass is 0.5. The backoffs are computed using the ratio method.
This model based on a corpus of 15 sentences and 18 words

\data\
ngram 1=18
ngram 2=31
ngram 3=25

\1-grams:
-0.8653 </s> -0.3010
-0.8653 <s> -0.2374
-2.0414 CLOSE -0.2374
-2.0414 EIGHT -0.2374
-2.0414 FIVE -0.2374
-2.0414 FOUR -0.2374
-2.0414 GO -0.2374
-1.0414 GRASP -0.2596
-2.0414 KATR -0.2374
-2.0414 ONE -0.2374
-2.0414 OPEN -0.2374
-2.0414 READY -0.2374
-2.0414 SEVEN -0.2374
-2.0414 SIX -0.2374
-2.0414 STOP -0.2374
-2.0414 THREE -0.2374
-2.0414 TWO -0.2374
-2.0414 ZERO -0.2374

\2-grams:
-1.4771 <s> CLOSE 0.0000
-1.4771 <s> GO 0.0000
-0.4771 <s> GRASP 0.0000
-1.4771 <s> OPEN 0.0000
-1.4771 <s> READY 0.0000
-1.4771 <s> STOP 0.0000
-0.3010 CLOSE </s> -0.3010
-0.3010 EIGHT </s> -0.3010
-0.3010 FIVE </s> -0.3010
-0.3010 FOUR </s> -0.3010
-0.3010 GO </s> -0.3010
-1.3010 GRASP EIGHT 0.0000
-1.3010 GRASP FIVE 0.0000
-1.3010 GRASP FOUR 0.0000
-1.3010 GRASP KATR 0.0000
-1.3010 GRASP ONE 0.0000
-1.3010 GRASP SEVEN 0.0000
-1.3010 GRASP SIX 0.0000
-1.3010 GRASP THREE 0.0000
-1.3010 GRASP TWO 0.0000
-1.3010 GRASP ZERO 0.0000
-0.3010 KATR </s> -0.3010
-0.3010 ONE </s> -0.3010
-0.3010 OPEN </s> -0.3010
-0.3010 READY </s> -0.3010
-0.3010 SEVEN </s> -0.3010
-0.3010 SIX </s> -0.3010
-0.3010 STOP </s> -0.3010
-0.3010 THREE </s> -0.3010
-0.3010 TWO </s> -0.3010
-0.3010 ZERO </s> -0.3010

\3-grams:
-0.3010 <s> CLOSE </s>
-0.3010 <s> GO </s>
-1.3010 <s> GRASP EIGHT
-1.3010 <s> GRASP FIVE
-1.3010 <s> GRASP FOUR
-1.3010 <s> GRASP KATR
-1.3010 <s> GRASP ONE
-1.3010 <s> GRASP SEVEN
-1.3010 <s> GRASP SIX
-1.3010 <s> GRASP THREE
-1.3010 <s> GRASP TWO
-1.3010 <s> GRASP ZERO
-0.3010 <s> OPEN </s>
-0.3010 <s> READY </s>
-0.3010 <s> STOP </s>
-0.3010 GRASP EIGHT </s>
-0.3010 GRASP FIVE </s>
-0.3010 GRASP FOUR </s>
-0.3010 GRASP KATR </s>
-0.3010 GRASP ONE </s>
-0.3010 GRASP SEVEN </s>
-0.3010 GRASP SIX </s>
-0.3010 GRASP THREE </s>
-0.3010 GRASP TWO </s>
-0.3010 GRASP ZERO </s>

\end\
