Language model created by QuickLM on Wed Oct 14 12:59:46 EDT 2015
Copyright (c) 1996-2010 Carnegie Mellon University and Alexander I. Rudnicky

The model is in standard ARPA format, designed by Doug Paul while he was at MITRE.

The code that was used to produce this language model is available in Open Source.
Please visit http://www.speech.cs.cmu.edu/tools/ for more information

The (fixed) discount mass is 0.5. The backoffs are computed using the ratio method.
This model based on a corpus of 11 sentences and 14 words

\data\
ngram 1=14
ngram 2=23
ngram 3=21

\1-grams:
-0.8931 </s> -0.3010
-0.8931 <s> -0.2416
-1.9345 EIGHT -0.2416
-1.9345 FIVE -0.2416
-1.9345 FOUR -0.2416
-0.9345 GRASP -0.2473
-1.9345 KATR -0.2416
-1.9345 ONE -0.2416
-1.9345 OPEN -0.2416
-1.9345 SEVEN -0.2416
-1.9345 SIX -0.2416
-1.9345 THREE -0.2416
-1.9345 TWO -0.2416
-1.9345 ZERO -0.2416

\2-grams:
-0.3424 <s> GRASP 0.0000
-1.3424 <s> OPEN 0.0000
-0.3010 EIGHT </s> -0.3010
-0.3010 FIVE </s> -0.3010
-0.3010 FOUR </s> -0.3010
-1.3010 GRASP EIGHT 0.0000
-1.3010 GRASP FIVE 0.0000
-1.3010 GRASP FOUR 0.0000
-1.3010 GRASP KATR 0.0000
-1.3010 GRASP ONE 0.0000
-1.3010 GRASP SEVEN 0.0000
-1.3010 GRASP SIX 0.0000
-1.3010 GRASP THREE 0.0000
-1.3010 GRASP TWO 0.0000
-1.3010 GRASP ZERO 0.0000
-0.3010 KATR </s> -0.3010
-0.3010 ONE </s> -0.3010
-0.3010 OPEN </s> -0.3010
-0.3010 SEVEN </s> -0.3010
-0.3010 SIX </s> -0.3010
-0.3010 THREE </s> -0.3010
-0.3010 TWO </s> -0.3010
-0.3010 ZERO </s> -0.3010

\3-grams:
-1.3010 <s> GRASP EIGHT
-1.3010 <s> GRASP FIVE
-1.3010 <s> GRASP FOUR
-1.3010 <s> GRASP KATR
-1.3010 <s> GRASP ONE
-1.3010 <s> GRASP SEVEN
-1.3010 <s> GRASP SIX
-1.3010 <s> GRASP THREE
-1.3010 <s> GRASP TWO
-1.3010 <s> GRASP ZERO
-0.3010 <s> OPEN </s>
-0.3010 GRASP EIGHT </s>
-0.3010 GRASP FIVE </s>
-0.3010 GRASP FOUR </s>
-0.3010 GRASP KATR </s>
-0.3010 GRASP ONE </s>
-0.3010 GRASP SEVEN </s>
-0.3010 GRASP SIX </s>
-0.3010 GRASP THREE </s>
-0.3010 GRASP TWO </s>
-0.3010 GRASP ZERO </s>

\end\
